<?xml version="1.0"?>
<opencv_storage>
<cascade>
  <stageType>BOOST</stageType>
  <featureType>HAAR</featureType>
  <height>46</height>
  <width>38</width>
  <stageParams>
    <boostType>GAB</boostType>
    <minHitRate>9.9500000476837158e-01</minHitRate>
    <maxFalseAlarm>5.0000000000000000e-01</maxFalseAlarm>
    <weightTrimRate>9.4999998807907104e-01</weightTrimRate>
    <maxDepth>1</maxDepth>
    <maxWeakCount>100</maxWeakCount></stageParams>
  <featureParams>
    <maxCatCount>0</maxCatCount>
    <featSize>1</featSize>
    <mode>BASIC</mode></featureParams>
  <stageNum>2</stageNum>
  <stages>
    <!-- stage 0 -->
    <_>
      <maxWeakCount>3</maxWeakCount>
      <stageThreshold>-9.8570770025253296e-01</stageThreshold>
      <weakClassifiers>
        <_>
          <internalNodes>
            0 -1 1 -1.3865694403648376e-01</internalNodes>
          <leafValues>
            9.4736844301223755e-01 -9.7733712196350098e-01</leafValues></_>
        <_>
          <internalNodes>
            0 -1 2 -2.8353971242904663e-01</internalNodes>
          <leafValues>
            9.6440571546554565e-01 -9.3889510631561279e-01</leafValues></_>
        <_>
          <internalNodes>
            0 -1 3 8.6362771689891815e-03</internalNodes>
          <leafValues>
            -9.1547536849975586e-01 9.3052452802658081e-01</leafValues></_></weakClassifiers></_>
    <!-- stage 1 -->
    <_>
      <maxWeakCount>1</maxWeakCount>
      <stageThreshold>1.</stageThreshold>
      <weakClassifiers>
        <_>
          <internalNodes>
            0 -1 0 1.8670648336410522e-02</internalNodes>
          <leafValues>
            1. -1.</leafValues></_></weakClassifiers></_></stages>
  <features>
    <_>
      <rects>
        <_>
          0 0 14 43 -1.</_>
        <_>
          7 0 7 43 2.</_></rects>
      <tilted>0</tilted></_>
    <_>
      <rects>
        <_>
          0 8 36 29 -1.</_>
        <_>
          12 8 12 29 3.</_></rects>
      <tilted>0</tilted></_>
    <_>
      <rects>
        <_>
          8 0 22 30 -1.</_>
        <_>
          8 15 22 15 2.</_></rects>
      <tilted>0</tilted></_>
    <_>
      <rects>
        <_>
          25 18 8 13 -1.</_>
        <_>
          29 18 4 13 2.</_></rects>
      <tilted>0</tilted></_></features></cascade>
</opencv_storage>
